digraph Tree {
node [shape=box, style="filled", color="black"] ;
0 [label="ROLLING_TEMP_T5 <= 1000.5\ngini = 0.436\nsamples = 499\nvalue = [339, 160]\nclass = 0", fillcolor="#f1bc96"] ;
1 [label="HSB_적용 <= 0.5\ngini = 0.24\nsamples = 394\nvalue = [339, 55]\nclass = 0", fillcolor="#e99559"] ;
0 -> 1 [labeldistance=2.5, labelangle=45, headlabel="True"] ;
2 [label="gini = 0.0\nsamples = 24\nvalue = [0, 24]\nclass = 1", fillcolor="#399de5"] ;
1 -> 2 ;
3 [label="FUR_SZ_TEMP <= 1175.5\ngini = 0.154\nsamples = 370\nvalue = [339, 31]\nclass = 0", fillcolor="#e78d4b"] ;
1 -> 3 ;
4 [label="ROLLING_DESCALING <= 5.5\ngini = 0.091\nsamples = 356\nvalue = [339, 17]\nclass = 0", fillcolor="#e68743"] ;
3 -> 4 ;
5 [label="gini = 0.0\nsamples = 5\nvalue = [0, 5]\nclass = 1", fillcolor="#399de5"] ;
4 -> 5 ;
6 [label="gini = 0.066\nsamples = 351\nvalue = [339, 12]\nclass = 0", fillcolor="#e68540"] ;
4 -> 6 ;
7 [label="gini = 0.0\nsamples = 14\nvalue = [0, 14]\nclass = 1", fillcolor="#399de5"] ;
3 -> 7 ;
8 [label="gini = 0.0\nsamples = 105\nvalue = [0, 105]\nclass = 1", fillcolor="#399de5"] ;
0 -> 8 [labeldistance=2.5, labelangle=-45, headlabel="False"] ;
}